{"layer_2_activation_prime":"relu_prime","layer_2_weights":[0.21499713,-0.06435267,-0.023395423,0.47144583,-0.04742554,-0.045618594,-0.0013395577,0.041562777,0.16793197,-0.038895737,-0.0029917199,0.45316228,-0.009187169,-0.1542414,-8.014976,0.22129719,-0.030874453,-0.002494658,0.0018413756,0.22267081,0.12437131,0.40025532,-0.0050169625,-0.011198459,0.093350865,0.07852312,0.228763,0.09029483,0.38340643,0.25336072,0.0946314,0.08050643,0.061120242,-0.010446049,-0.08434634,-0.27177918,0.12717207,-0.039746776,0.0013525399,0.061599895,0.044643927,-0.07498476,-0.0067965784,-1.6109813,-0.008194211,-0.19622108,-0.19833533,-0.21182324,-0.015086738,-0.00809152,-0.009095186,0.046640806,0.088639885,-0.6220886,-0.010074062,-0.002751024,0.044526268,0.048880294,0.057410616,0.044380113,0.39318025,-0.23617479,0.05262123,0.042567324,-2.7763152,-0.010455627,-0.042303704,-0.011532394,0.008265742,-0.004880315,0.006500923,0.059318602,-5.1056075,-0.045789346,-0.0065522585,-0.01194087,-0.012684557,-0.067917906,0.3741538,-0.08354527,0.004540001,-0.01158821,-0.0016588245,-2.6728802,-0.022016382,-0.024436612,-0.004069603,0.0032342868,-0.048371058,-0.04278523,-2.7744844,-0.04020543,-0.50583714,-0.048985355,-0.03406703,-0.027444176,-0.18363193,-0.0141405715,0.09324888,-0.035521947,-0.015574573,-0.056478675,0.01286474,-0.15094203,-0.15355642,0.11411516,-0.011388901,-0.030770838,-0.003262309,-0.19262433,-0.013485853,-0.038946915,0.015887681,-0.005984407,-0.0002303484,-0.17652635,0.055045504,-0.016748646,-0.010460497,-0.015598168,0.04710958,0.031201094,-0.18374096,0.05245555,-1.9572996,-0.025275104,0.07477643,0.037373856,-2.4057426,-0.00031919224,-0.01013067,0.01955462,0.011121911,-0.015252877,0.0009774409,0.11478924,-4.740003,-0.020747935,-0.0145980185,0.015665747,-0.017883515,-0.082756825,0.34940517,-0.12697977,0.006662955,0.0038390388,0.002788753,-2.308221,-0.048908886,0.00434387,0.008971669,0.016312934,-0.048284348,-0.051156018,-2.3902032,-0.05809426,-0.38761458,-0.08558315,-0.037639186,-0.033546083,0.009012857,0.0014210886,0.0077056373,-0.010064616,0.010065807,0.012570424,0.006728457,0.008660841,0.0059358883,0.0029395567,0.0014822521,0.033674896,0.0031321503,0.0003279362,0.0071600345,0.013332847,-0.011842795,0.00059814675,-0.01371344,0.013114215,-0.0022859334,0.0013745275,-0.0017224178,-0.00043324375,0.004627167,-0.0035399904,-0.0025580805,0.0058496566,-0.0076936926,0.005170336,0.013273543,-0.0070742914,-0.2895029,0.0037362373,-0.700607,-0.6697042,-0.0077717113,-0.0004216088,-0.01454079,-0.46426693,-0.011413089,-0.68160886,0.0015092641,-0.68820506,0.01229933,-0.05456915,0.65772,-0.008875556,-0.003359145,-0.009910199,-0.0015452106,-0.2793218,-0.009290696,-0.69033587,-0.0028804638,-0.004298617,0.0061320825,-0.0018164791,-0.28024593,-0.0008176016,0.005145948,-0.010568072,0.0014960966,0.009279082,-0.04731164,-0.013157274,-0.0020236885,-1.5244122,0.20735383,-0.036942426,-0.006568577,-0.04505567,-0.054955173,-0.0045846994,-0.012600989,-2.657866,0.00941726,-0.2004149,-0.040565223,-0.9980884,-0.0045486693,-0.0039807367,-0.007829468,-0.06519327,0.098811954,-1.3415517,-0.011280895,0.0032014425,0.074186645,0.06719769,-0.060774274,0.0704985,0.34926546,-1.0650443,0.06916669,0.070828445,0.30019853,-0.078048036,0.065577276,0.34146273,-0.17319822,-0.0448369,-0.018891152,0.46710616,0.22797096,0.061473016,-0.0047204955,0.33761057,-0.007842909,-0.18865338,0.05381643,0.23186603,-0.03317001,-0.005185379,-0.011101894,0.315657,0.15257232,0.33516067,-0.003257187,0.0027579344,0.12493409,0.08852348,0.3247517,0.12106353,0.35702646,0.22592343,0.1050589,0.11831186,-0.09653634,0.008000603,0.0025302407,-1.9191573,0.24093671,-0.029989304,0.0027186861,-0.063646406,-0.08404448,0.004727745,-0.015510162,-2.8359683,-0.012220135,-0.19346419,-0.00019653309,-1.5119041,-0.005348955,-0.0062860423,0.0013105742,-0.077679016,0.10846415,-1.6791193,-0.006493806,0.0049316683,0.06633759,0.06939218,-0.07239072,0.056040566,0.23787914,-1.4232056,0.070078634,0.05500103,-0.042482406,-0.011981695,-0.02338419,-1.0299041,0.19288377,-0.053401258,-0.008139588,-0.016528659,-0.0320748,-0.036416546,0.01042191,-2.1047103,0.012967163,-0.19254354,-0.04348009,-0.4578376,-0.0019813364,0.0008677548,0.0030719386,-0.0418233,0.09978074,-0.9040169,-0.001610837,-0.0035256874,0.07961737,0.08924258,-0.028496563,0.058932323,0.35226613,-0.5046231,0.092643574,0.07318227,0.01846814,0.0021610619,-0.06455173,-0.60650194,0.124696545,-0.02535137,-0.003765323,0.047177296,-0.002331085,-0.049441755,0.0022412972,-1.6312768,0.0012208889,-0.20207743,-0.28022748,-0.46655816,-0.008230216,0.011203396,0.008708392,0.013364499,0.10122226,-0.86303335,0.000698715,-0.0046202117,0.057466336,0.06038313,0.030106302,0.047778565,0.3963194,-0.4722869,0.07804783,0.072948396,-0.03743396,0.006978796,0.0011325055,-1.3972332,0.20732725,-0.02882684,-0.0070179426,-0.039026678,-0.05522047,-0.011229728,0.004138462,-2.4748793,-0.015221301,-0.1868844,-0.034265764,-0.8307679,-0.0012575767,-0.020485317,-0.0016192098,-0.037517816,0.08518647,-1.3233736,0.0036343026,-0.012209922,0.04870979,0.06552713,-0.045852263,0.05303619,0.32331103,-0.8559296,0.050674032,0.04698161,0.012458899,-0.0012893437,-0.372393,-0.34857273,-0.01277125,-0.016860563,0.010050932,-5.394117,-0.0034766758,-0.37856522,-0.014719753,-0.3410039,0.009612253,-0.06278524,0.32820827,-0.02451838,0.010600141,0.009665808,-0.003575658,0.005732726,-0.0039739464,-0.41637537,0.0021863931,-0.0053470912,-0.00037554142,0.0011750872,-0.0004776772,-0.018399773,-0.018880924,0.017658113,0.010817753,0.0028315994,-2.0150926,-0.0066238386,0.009579253,0.025726376,-0.005658182,-0.008261109,-0.0053570676,0.1583291,-3.8457146,-0.0039003748,0.0044963975,0.034537043,-0.008937463,-0.065548256,0.31739014,-0.15677953,-0.016127614,4.8347032e-5,0.0075447587,-1.9865408,-0.05343087,0.031066306,-0.007069043,-0.008188207,-0.059004202,-0.044052124,-2.001735,-0.058827437,-0.18518105,-0.14963423,-0.058744445,-0.055121146,0.041057993,-0.061940208,0.19040078,0.22783315,-0.004995987,-0.013527158,-0.010081314,0.30618164,-0.120167755,0.20895979,0.0065577896,0.23353417,0.005051077,-0.028799087,0.21599667,-0.41944343,0.0095024705,-0.0058015743,-0.007214402,-0.02223526,-0.061157882,0.23877583,-0.0005894051,-0.010278548,-0.06612282,0.05664484,-0.02644108,-0.061920494,-0.5349309,-0.4862027,-0.2764831,-0.036887176,-0.2564577,-0.0025564209,0.1533516,-0.028634978,-0.11703669,-0.050358947,-0.012580268,-0.22931586,-0.23136322,0.16221814,0.014469311,-0.028834222,0.0016463689,-0.17871271,-0.01017997,-0.02778895,-0.005499836,-0.0019294862,-0.020438368,-0.26437178,0.10887846,-0.022264509,0.0073894374,-0.0041288827,0.0929404,0.08972377,-0.24149224,0.08467851,-2.613408,-0.04305056,0.109631754,0.094635524,-1.6406636,-0.002619887,0.047074646,0.05076149,-0.0059868065,-0.02309423,0.009102362,0.20022377,-2.6354337,0.042792223,-0.004999548,0.05602334,-0.0010120684,-0.083735965,0.32662177,-0.34834224,-0.042335708,0.0031613645,4.938949e-7,-1.6579376,0.042157874,0.047088202,-0.001079203,-0.011400905,0.021898633,0.04272864,-1.678443,0.030504242,-0.45593354,-0.34132496,0.024848895,0.02030174,-0.72189754,0.0009510615,0.5732801,-0.0340906,-0.45422187,-0.052341696,0.01018662,-0.661761,-0.68367857,0.5707343,-0.0055233943,-0.025547132,-0.0028674298,-0.17734043,-0.010646129,-0.03978349,0.0005944919,-0.00988953,-0.0017677039,-0.6862581,0.56564707,-0.004390694,0.004294167,-0.0014197212,0.57693607,0.5120864,-0.68054813,0.56841266,-4.1489954,-0.046263084,0.5729081,0.55741316,0.37960345,-0.05400979,0.1544687,0.29258817,-2.2141938,-0.02906818,-0.013414752,0.39422855,0.38664865,0.17696293,-0.00853243,0.22932465,0.010345493,-0.035595637,0.20603554,-0.094344676,-0.016897852,-0.027694888,-0.015987152,0.3670621,-4.3526797,0.30214378,-0.0130740125,-0.0026427447,-6.2474194,-2.4351058,0.37931225,-6.2241197,-0.7572293,-0.048048966,-5.8546987,-6.074017,-0.14635329,0.008582702,0.07861145,0.0041897986,-0.038857672,-0.032160286,0.0048411125,-0.113509856,-0.14981225,0.060101528,-0.007671628,-0.0018975391,-0.013408153,-0.20603088,-0.016177969,0.008346426,-0.0098104905,-0.00923065,0.003550047,-0.1482141,0.036864325,-0.015294291,0.010510224,0.0005385442,0.027115494,0.02289781,-0.14532626,0.00708466,-2.1162605,0.0038674092,0.027765652,-0.0024524266,0.017623061,-0.0076161963,-0.07040048,-0.5445123,0.117875256,-0.027620161,0.009400554,0.06004933,0.046642486,-0.06088015,0.004870427,-1.7093146,0.017913153,-0.20089073,-0.22154802,-0.22504771,-0.004186413,-0.007913491,0.008771886,0.030380424,0.0879248,-0.6784003,-0.0049368073,-0.010303187,0.061622154,0.04289937,0.0350811,0.06773886,0.39947248,-0.25606808,0.07145402,0.04901874,-0.6775631,-0.007595836,-1.1093072,-1.1067485,-0.004205315,0.00093999325,-0.0029542835,-7.510492,-0.5456935,-1.0795306,-0.006710375,-1.0911956,0.011007664,-0.028760187,1.1796079,-0.035175715,-0.044625018,-0.018781768,0.019643927,-0.5682919,-0.0045432737,-1.1077639,-0.02157491,-0.0049131345,0.014553855,0.009735246,-0.5874557,0.032566547,-0.47139007,-0.014165982,0.034912396,0.009646358,0.032564957,-0.005228187,-0.08693989,-1.1466658,0.08741426,-0.04349702,-0.009230179,0.072924025,0.032553416,-0.060165122,0.0021605142,-1.1020399,-0.01891545,-0.20482412,-0.1954552,-0.072720826,-0.008567368,0.008915393,-0.004921969,0.036062233,0.10395034,-0.60309356,0.013043459,0.0061449497,0.06896505,0.07407165,0.04542507,0.0509843,0.42914435,-0.119336285,0.060872216,0.07913994,-0.714661,0.002126749,0.57995754,-0.04135422,-0.44058532,-0.030261189,-0.0037840118,-0.67367846,-0.68623555,0.6039128,0.009766285,-0.03479794,-0.005141361,-0.1801093,-0.009020501,-0.051550113,-0.0039535095,0.016236814,0.0053847195,-0.6949883,0.57492137,-0.0014584126,0.009047022,0.010776358,0.58567727,0.52799094,-0.6890961,0.56979585,-4.3008685,-0.029137377,0.59222186,0.5656391,-0.06277019,-0.059185248,0.17087191,0.20935151,-0.0012091664,-0.03090841,0.0045278915,0.34791827,0.010441182,0.15171413,0.006652823,0.2044872,-0.02207618,-0.028968122,0.2868213,-1.0048189,-0.04143143,-0.018667137,-0.015741909,-0.0880299,0.028672133,0.19980152,-0.01017318,-0.0038265374,0.021623893,-0.18136792,-0.09412226,0.045669425,-1.0540034,-1.4647042,0.02913246,0.030000275,0.043708757,-0.010022349,-0.07321244,-0.5130869,0.11830933,-0.05037892,0.0016340328,0.060239427,0.017574312,-0.06266602,-0.0037556952,-1.7728298,0.020403754,-0.20185101,-0.19561996,-0.19377646,-0.0065421453,-0.008032133,-0.012024812,0.042625092,0.08976073,-0.6955952,0.008561389,-0.0009272783,0.049075935,0.0361936,0.043160573,0.07378487,0.39899114,-0.22187085,0.055498548,0.066446215,0.0040268856,-0.010271371,0.008603158,0.0047720354,-0.00032249792,0.0026309264,0.0070378655,0.011934627,0.018607894,-0.0007744598,0.0001599208,0.01228085,-0.01057176,0.0117818,0.012305887,-0.0054309103,0.0057792733,-0.004215698,-0.0013591556,0.0042424416,0.013970826,0.009997234,0.007352881,0.0029089164,-0.010541844,-0.009707938,-0.0028478396,-0.00043557992,-0.016692914,0.00046183736,0.016134752,0.006654022,-0.14125009,0.009546674,0.05841975,-2.9163153,0.31410697,-0.028357433,-0.0041064476,-0.09944462,-0.14077947,0.05562394,-0.008098402,-2.1959238,-0.008926593,-0.19027355,0.009351416,-2.6244745,0.005705931,0.017419701,-0.021968668,-0.14814274,0.078435495,-2.303507,-0.0078008506,0.0009778274,0.0230329,0.057912156,-0.15282634,0.025865268,0.18524463,-2.64218,0.057745196,0.011974851,-0.008652836,0.002280169,-0.014064831,0.0041556926,-0.0029989588,0.0021701097,-0.001708156,-0.0065692053,0.0020168752,0.010430915,0.011481787,0.015629072,0.00091737235,-0.0048726294,-0.018823553,-0.0022261064,0.004076301,0.012961108,-0.0029953653,0.0034811117,-0.008783298,0.0012846822,-0.008363283,0.013059334,-0.0022395973,0.002566338,-0.0039911917,-0.0051817843,-0.0041910317,0.009071677,0.0016114365,0.00078540656,-0.6792712,-0.004075434,0.5642729,-0.025993317,-0.425691,-0.043781977,0.009086013,-0.63774705,-0.66949654,0.5661562,-2.0471605e-6,-0.017487656,0.013997181,-0.18382521,-0.012825682,-0.03471288,-0.0065248697,-0.009471559,-0.008246103,-0.69504845,0.55436623,-0.0021832888,0.0038141648,-0.0017272941,0.545066,0.49587402,-0.6855482,0.5488373,-4.1590996,-0.017258007,0.5648301,0.53418666,-0.012941085,-0.050173704,0.19627559,0.22594309,-0.00041075613,-0.021554373,0.019393703,0.3191818,-0.023734596,0.21414705,-0.0067010936,0.2180247,-0.0021169123,-0.030468013,0.21707386,-0.5213959,-0.0069249067,0.0044694026,-0.00025494592,-0.0057805465,-0.05868199,0.22730274,0.0038004657,-0.0029416794,-0.07710181,-0.06562381,0.0056876177,-0.07056141,-0.49118334,-0.59891003,-0.1099154,-0.046594806],"layer_1_weight_size":[32,1],"layer_1_activation":"relu","layer_3_bias_size":[1,1],"layer_1_activation_prime":"relu_prime","n_layers":3,"layer_2_weight_size":[32,32],"layer_3_bias":[-0.05305223],"layer_3_activation":"none_activation","layer_3_weights":[0.48465666,0.009294204,-0.23374051,-0.85439473,0.33191097,0.01287069,-0.016882403,1.3742576,0.36847657,-0.22414476,0.011919421,-0.80435044,0.011421503,0.049634926,1.1164781,-0.691208,-0.009227335,-0.01743831,-0.0032930335,0.47408143,-0.2231809,-0.7077903,-0.00024650682,0.00013039216,-0.2355673,-0.15474643,0.4792038,-0.23099396,-1.7509998,-0.78069776,-0.23167792,-0.22008559],"layer_2_bias":[0.31543976,-0.058009338,0.046634234,0.301586,-0.12571563,-0.045188185,0.0,0.45776364,0.24758063,0.03729392,-0.0027660562,0.27691612,0.0,-0.1943942,0.08283808,0.20680329,-0.036540028,0.0,-0.0022907597,0.3155155,0.1202168,0.28828216,-0.00044544393,-0.0037670552,0.08356264,0.056920484,0.3188273,0.097084664,0.32318163,0.21444166,0.07505955,0.089173466],"layer_1_bias_size":[32,1],"layer_1_bias":[0.48435953,-0.034888763,-0.13474128,-0.27417642,-0.101586334,-0.0029922035,-0.15855627,-0.049823496,1.819272,-0.08928835,-0.03450879,-0.041572366,-0.050771803,-0.37428555,-0.1395888,0.16032018,-0.34033564,-0.09028424,-0.552634,0.47757688,-0.27390397,-0.017253961,-1.2234379,-0.05918321,-0.6001473,0.2557072,-0.03923441,-0.0037367865,-0.09682734,-0.0038487748,-0.5726634,0.19031127],"layer_3_activation_prime":"none_activation_prime","layer_2_activation":"relu","layer_1_weights":[-0.84696305,-0.5031285,0.7998092,-0.45764947,0.702248,-0.002947875,0.34254962,-0.49270388,0.047139112,-0.47925806,-0.4554743,-0.5030447,-0.47414526,0.63150036,0.63873476,0.755776,-0.5704795,0.65382844,-0.81276315,0.83653885,-0.45861804,-0.51841396,1.7824893,-0.6563811,-0.8647637,1.942984,-0.54105026,-0.0007398244,-0.4673234,-0.0026087172,-0.8203103,0.7875683],"layer_2_bias_size":[32,1],"layer_3_weight_size":[1,32]}